
\data\
ngram 1=106
ngram 2=328
ngram 3=165

\1-grams:
-0.9031478	</s>
-99	<s>	-0.947363
-2.51825	ALL	-0.1719009
-2.51825	ANN	-0.1719009
-2.216031	APPLE	-0.1719009
-1.61308	ARRIVE	-0.6112336
-2.216031	BILL	-0.1719009
-1.914407	BLAME	-0.2968397
-2.51825	BLUE	-0.1719009
-1.61308	BOOK	-0.6947797
-2.51825	BORROW	-0.1719009
-2.216031	BOX	-0.4729309
-2.216031	BOY	-0.1719009
-2.51825	BREAK-DOWN	-0.1719009
-2.51825	BROCCOLI	-0.1719009
-2.216031	BROTHER	-0.4729309
-2.51825	BUT	-0.1719009
-1.671115	BUY	-0.4351424
-1.914407	CAN	-0.2510822
-2.51825	CANDY	-0.1719009
-1.738118	CAR	-0.3937497
-2.51825	CHICAGO	-0.1719009
-2.51825	CHICKEN	-0.1719009
-2.51825	CHINA	-0.1719009
-2.51825	CHOCOLATE	-0.1719009
-2.51825	COAT	-0.1719009
-2.216031	CORN	-0.4729309
-2.51825	DECIDE	-0.1719009
-2.216031	EAT	-0.1719009
-2.51825	FIND	-0.1719009
-2.039543	FINISH	-0.3937497
-2.51825	FISH	-0.1719009
-2.039543	FRANK	-0.1719009
-2.51825	FRED	-0.1719009
-2.51825	FRIEND	-0.1719009
-1.817378	FUTURE	-0.3479922
-2.51825	GET	-0.1719009
-2.216031	GIRL	-0.1719009
-1.61308	GIVE	-0.3681956
-1.817378	GO	-0.2298929
-2.51825	GROUP	-0.1719009
-2.039543	HAVE	-0.3479922
-2.51825	HERE	-0.1719009
-2.51825	HIT	-0.1719009
-2.51825	HOMEWORK	-0.1719009
-2.216031	HOUSE	-0.1719009
-1.260733	IX	-0.3845091
-1.914407	IX-1P	-0.2688109
-2.51825	JANA	-0.1719009
-1.43689	JOHN	-0.2905907
-2.216031	KNOW	-0.4729309
-2.51825	LAST-WEEK	-0.1719009
-2.51825	LEAVE	-0.1719009
-2.51825	LEG	-0.1719009
-1.914407	LIKE	-0.318029
-2.51825	LIVE	-0.1719009
-1.914407	LOVE	-0.3479922
-2.51825	MAN	-0.1719009
-2.51825	MANY	-0.1719009
-1.43689	MARY	-0.4271734
-2.039543	MOTHER	-0.3479922
-2.51825	MOVIE	-0.1719009
-2.51825	NAME	-0.1719009
-1.914407	NEW	-0.4729309
-2.51825	NEW-YORK	-0.1719009
-2.51825	NEXT-WEEK	-0.1719009
-1.914407	NOT	-0.2510822
-2.51825	OLD	-0.1719009
-2.51825	PARTY	-0.1719009
-2.51825	PAST	-0.1719009
-2.039543	PEOPLE	-0.1719009
-1.738118	POSS	-0.2968397
-2.51825	POTATO	-0.1719009
-1.914407	PREFER	-0.1719009
-2.51825	PUTASIDE	-0.1719009
-2.216031	READ	-0.4729309
-2.216031	SAY	-0.1719009
-2.51825	SAY-1P	-0.1719009
-2.51825	SEARCH-FOR	-0.1719009
-2.039543	SEE	-0.1719009
-2.51825	SELF	-0.1719009
-2.216031	SELL	-0.1719009
-2.51825	SHOOT	-0.1719009
-1.914407	SHOULD	-0.2968397
-1.817378	SOMETHING-ONE	-0.2298929
-2.51825	STOLEN	-0.1719009
-2.216031	STUDENT	-0.3479922
-2.216031	SUE	-0.4729309
-2.216031	TEACHER	-0.1719009
-2.216031	TELL	-0.4729309
-2.51825	THINK	-0.1719009
-2.51825	THROW	-0.1719009
-2.51825	TOMORROW	-0.1719009
-2.51825	TOY	-0.1719009
-2.039543	VEGETABLE	-0.1719009
-2.216031	VIDEOTAPE	-0.4729309
-1.738118	VISIT	-0.414939
-2.51825	WANT	-0.1719009
-1.369915	WHAT	-0.5240834
-1.474697	WHO	-0.3760209
-2.51825	WILL	-0.1719009
-1.914407	WOMAN	-0.2510822
-2.216031	WONT	-0.4729309
-2.51825	WRITE	-0.1719009
-1.738118	YESTERDAY	-0.2510822
-2.761846	[UNKNOWN]

\2-grams:
-2.066325	<s> ALL	-0.554368
-2.624788	<s> ANN
-1.95889	<s> ARRIVE	-0.554368
-2.032825	<s> FRANK	-0.554368
-2.426064	<s> FUTURE
-1.286496	<s> IX	-0.155891
-2.016997	<s> IX-1P
-0.2383827	<s> JOHN	-0.5412526
-2.624788	<s> LAST-WEEK
-2.467881	<s> LIKE
-1.656817	<s> LOVE	-0.554368
-2.624788	<s> MANY
-1.429291	<s> MARY	-0.4487732
-2.624788	<s> NAME
-2.624788	<s> NEXT-WEEK
-2.514157	<s> PEOPLE
-1.986972	<s> POSS
-2.624788	<s> SHOOT
-1.543727	<s> SOMETHING-ONE	-0.1402975
-2.565959	<s> STUDENT
-1.819901	<s> SUE	-0.7304593
-2.049252	<s> TEACHER	-0.554368
-1.819901	<s> TELL	-0.7304593
-2.032825	<s> VEGETABLE	-0.554368
-1.355426	<s> WHAT	-0.289064
-1.365712	<s> WHO	-0.3438613
-2.467881	<s> WOMAN
-0.4802205	ALL BOY	-0.554368
-0.4748677	ANN BLAME
-0.6063108	APPLE </s>
-0.7304913	APPLE WHO	-0.7304593
-0.3726909	ARRIVE </s>
-0.6730995	ARRIVE HERE	-0.7304592
-1.4855	ARRIVE NOT
-0.8899851	ARRIVE WHO	-0.2294157
-0.973332	BILL MARY
-1.066459	BILL SAY
-0.9568837	BILL WHAT
-1.026782	BILL YESTERDAY	-0.7304593
-0.4036064	BLAME </s>
-1.079625	BLAME FRED
-0.9992229	BLAME MARY
-0.6063108	BLUE </s>
-0.7759122	BLUE SUE
-0.1203732	BOOK </s>
-1.477565	BOOK PUTASIDE
-1.384019	BOOK WHAT
-0.4802205	BORROW VIDEOTAPE
-0.151503	BOX </s>
-0.74511	BOY BOOK	-0.554368
-0.74511	BOY GIVE	-0.554368
-0.3861583	BREAK-DOWN </s>
-0.3861583	BROCCOLI </s>
-0.1728646	BROTHER ARRIVE	-0.554368
-0.4748677	BUT CAN	-0.554368
-1.121452	BUY </s>
-0.8950529	BUY CAR	-0.2675189
-0.4027607	BUY HOUSE	-1.207581
-1.302261	BUY IX	-0.554368
-1.343127	BUY WHAT	-0.2815728
-1.438592	BUY YESTERDAY	-0.554368
-0.5357291	CAN </s>
-1.177569	CAN BUY
-1.237401	CAN EAT	-0.554368
-1.250425	CAN GET
-1.200522	CAN GO	-1.031489
-0.3861583	CANDY </s>
-1.080059	CAR </s>
-0.8731818	CAR BLUE	-0.3707306
-0.8731818	CAR BREAK-DOWN	-0.8553979
-0.857495	CAR FUTURE	-0.3563192
-1.424747	CAR SHOULD
-0.8731818	CAR STOLEN	-0.554368
-0.3861583	CHICAGO </s>
-0.3861583	CHICKEN </s>
-0.4391389	CHINA IX	-0.554368
-0.6063108	CHOCOLATE </s>
-0.7304913	CHOCOLATE WHO
-0.3861583	COAT </s>
-0.151503	CORN </s>
-0.4695801	DECIDE VISIT	-0.554368
-0.9546863	EAT BUT	-0.554368
-0.9546863	EAT CHICKEN	-0.554368
-0.86114	EAT WHAT
-0.4722158	FIND SOMETHING-ONE
-0.5721409	FINISH READ	-0.554368
-1.160766	FINISH SEE
-0.5642269	FINISH VISIT	-0.554368
-0.4802205	FISH WONT	-0.554368
-0.7142477	FRANK </s>
-0.9312418	FRANK NEW
-0.9162869	FRANK POSS
-0.4391389	FRED IX
-0.4695801	FRIEND POSS
-0.5022029	FUTURE </s>
-1.338297	FUTURE BUY
-1.393448	FUTURE FINISH
-1.364998	FUTURE GO	-0.2749251
-1.277949	FUTURE JOHN
-0.8156064	FUTURE NOT	-0.3735631
-0.4748677	GET CAN
-0.7759122	GIRL BOX	-0.554368
-0.74511	GIRL GIVE	-0.7304593
-0.9092859	GIVE BOY	-0.554368
-1.490525	GIVE GIRL	-0.554368
-0.8825129	GIVE GIVE
-0.8412615	GIVE IX	-0.3707752
-0.9139131	GIVE JANA	-0.554368
-1.343137	GIVE JOHN	-0.7304593
-1.490525	GIVE TEACHER	-0.554368
-1.318472	GO CAN	-1.031489
-1.302532	GO FUTURE
-1.135658	GO IX	-0.554368
-1.370136	GO MOVIE
-1.370136	GO NEW-YORK	-0.554368
-1.370136	GO PARTY
-0.7618743	GO SHOULD	-0.2785093
-0.464356	GROUP GIVE
-0.3436836	HAVE BOOK	-0.554368
-0.9520035	HAVE VIDEOTAPE	-0.554368
-0.3861583	HERE </s>
-0.4748677	HIT BLAME
-0.3861583	HOMEWORK </s>
-0.6063108	HOUSE </s>
-0.7759122	HOUSE SELL
-0.5407369	IX </s>
-1.27689	IX BOOK
-1.298067	IX CAR	-0.7304593
-1.884291	IX GIRL	-0.7304592
-1.686136	IX GIVE
-1.844337	IX HAVE
-1.928297	IX HIT
-1.184183	IX IX	-0.8553981
-1.591232	IX JOHN
-1.32033	IX LIKE	-0.4030977
-1.928297	IX MAN
-1.807751	IX NEW
-1.844337	IX PEOPLE	-0.554368
-1.928297	IX SAY-1P
-1.774009	IX SOMETHING-ONE	-0.554368
-1.928297	IX THINK	-0.554368
-1.613086	IX WHO
-1.32033	IX WOMAN
-1.7427	IX YESTERDAY
-1.114314	IX-1P BUY
-1.173881	IX-1P FIND
-1.163369	IX-1P KNOW
-0.5681695	IX-1P SEE
-0.4829218	JANA TOY	-0.554368
-1.148021	JOHN </s>
-1.707984	JOHN ARRIVE	-0.3271412
-1.874738	JOHN BLAME
-1.990537	JOHN BOX	-0.7304593
-1.990537	JOHN BROTHER
-1.74406	JOHN BUY	-0.7304593
-1.874738	JOHN CAN	-0.4852054
-2.062541	JOHN DECIDE	-0.554368
-1.928789	JOHN FINISH
-2.062541	JOHN FISH	-0.554368
-1.826676	JOHN FUTURE	-0.551142
-1.707984	JOHN GIVE	-0.7304592
-1.096248	JOHN GO	-0.3491867
-1.244559	JOHN IX	-0.09812059
-1.874738	JOHN IX-1P
-2.062541	JOHN LEAVE	-0.7304593
-1.454911	JOHN LIKE	-0.3585722
-1.104795	JOHN LOVE	-0.2175398
-1.58779	JOHN MARY
-1.928789	JOHN MOTHER
-1.874738	JOHN NOT	-0.554368
-2.062541	JOHN PAST
-1.783407	JOHN POSS
-1.874738	JOHN PREFER	-0.554368
-1.990537	JOHN READ
-1.990537	JOHN SAY
-2.062541	JOHN SEARCH-FOR
-1.257589	JOHN SEE	-0.4388588
-1.874738	JOHN SHOULD	-0.2190306
-1.417876	JOHN VISIT
-2.062541	JOHN WANT	-0.554368
-1.614866	JOHN WHO	-0.554368
-2.062541	JOHN WILL	-0.554368
-2.062541	JOHN WRITE
-1.783407	JOHN YESTERDAY
-0.1662797	KNOW IX	-0.7304593
-0.4540928	LAST-WEEK JOHN
-0.4391389	LEAVE IX	-0.7304592
-0.3861583	LEG </s>
-0.9714751	LIKE </s>
-0.4764254	LIKE CHOCOLATE	-0.2457918
-1.304348	LIKE CORN	-0.7304593
-1.13624	LIKE IX	-0.855398
-1.191936	LIKE MARY
-0.4829218	LIVE CHICAGO
-0.6914	LOVE </s>
-1.215111	LOVE IX
-1.277949	LOVE JOHN	-0.554368
-0.560744	LOVE MARY	-0.554368
-1.255977	LOVE WHAT	-0.7304592
-1.289366	LOVE WHO
-0.6981808	MAN IX
-0.7654002	MAN NEW
-0.4775358	MANY PEOPLE
-0.3431477	MARY </s>
-1.689658	MARY BILL
-1.643712	MARY BLAME
-1.643712	MARY IX-1P
-1.497099	MARY JOHN
-1.106409	MARY LOVE	-0.2541536
-1.714593	MARY SELF	-0.554368
-1.666078	MARY VEGETABLE	-0.2731313
-1.602165	MARY VISIT
-1.689658	MARY WONT
-0.3436836	MOTHER ARRIVE
-0.874272	MOTHER IX
-0.6063108	MOVIE </s>
-0.7812652	MOVIE TOMORROW
-0.3861583	NAME </s>
-0.4712523	NEW CAR	-0.7304593
-0.4778976	NEW COAT	-0.554368
-0.3861583	NEW-YORK </s>
-0.4540928	NEXT-WEEK JOHN
-0.9045283	NOT </s>
-0.6324448	NOT BUY	-0.9523081
-1.212471	NOT LIKE
-1.188894	NOT VISIT	-0.554368
-1.10562	NOT WHAT
-0.4802205	OLD HOUSE
-0.4722158	PARTY FUTURE
-0.4829218	PAST LIVE
-0.9018299	PEOPLE GIVE
-0.9546863	PEOPLE GROUP
-0.9312418	PEOPLE PREFER	-0.554368
-0.9105278	POSS BOOK
-1.518427	POSS BROTHER
-1.541061	POSS CANDY
-0.9215465	POSS CAR
-1.496914	POSS FRANK
-1.541061	POSS FRIEND
-1.541061	POSS LEG
-0.9328519	POSS NEW	-0.554368
-1.541061	POSS OLD
-0.4490507	POTATO WHAT
-1.076971	PREFER BROCCOLI	-0.554368
-1.066459	PREFER CORN	-0.554368
-1.036366	PREFER GO	-0.554368
-1.076971	PREFER POTATO
-0.3861583	PUTASIDE </s>
-0.1728646	READ BOOK	-0.7304593
-0.7257257	SAY JOHN
-0.7257257	SAY MARY
-0.4748677	SAY-1P LOVE
-0.456636	SEARCH-FOR WHO
-1.03902	SEE IX
-1.101857	SEE JOHN
-1.101857	SEE MARY
-1.247803	SEE THROW	-0.7304592
-1.079886	SEE WHAT
-1.113275	SEE WHO
-0.4748677	SELF PREFER	-0.554368
-0.7551367	SELL CAR
-0.7551367	SELL YESTERDAY
-0.4775358	SHOOT FRANK
-0.4510504	SHOULD </s>
-1.287144	SHOULD BUY
-1.342296	SHOULD FINISH
-1.313845	SHOULD GO
-1.327837	SHOULD NOT	-0.2486243
-1.327837	SHOULD SHOULD	-0.554368
-1.257947	SOMETHING-ONE ARRIVE
-1.370136	SOMETHING-ONE BORROW
-1.287156	SOMETHING-ONE CAR
-0.7529525	SOMETHING-ONE POSS
-1.352223	SOMETHING-ONE STUDENT
-1.18053	SOMETHING-ONE WHAT
-1.318472	SOMETHING-ONE WOMAN	-0.554368
-0.3861583	STOLEN </s>
-0.3502885	STUDENT HAVE	-0.554368
-0.9363294	STUDENT SOMETHING-ONE
-0.1735286	SUE BUY	-0.186349
-0.7759122	TEACHER APPLE	-0.554368
-0.74511	TEACHER GIVE
-0.176864	TELL BILL	-0.2757623
-0.4540928	THINK MARY	-0.554368
-0.4802205	THROW APPLE	-0.7304592
-0.3861583	TOMORROW </s>
-0.3861583	TOY </s>
-1.076971	VEGETABLE CHINA	-0.554368
-1.046167	VEGETABLE IX-1P
-1.066459	VEGETABLE KNOW	-0.554368
-1.046167	VEGETABLE PREFER
-0.151503	VIDEOTAPE </s>
-0.3103954	VISIT MARY	-0.6186109
-1.299232	VISIT MOTHER
-1.199922	VISIT WHAT
-1.224834	VISIT WHO
-0.4802205	WANT SELL	-0.554368
-0.4771277	WHAT </s>
-1.594291	WHAT ARRIVE
-1.091478	WHAT BOOK	-0.7304593
-1.536112	WHAT JOHN	-0.3991041
-0.708262	WHAT MARY	-0.3175808
-1.643688	WHAT SOMETHING-ONE
-1.111492	WHAT WOMAN
-1.62659	WHAT YESTERDAY	-0.554368
-0.4907832	WHO </s>
-1.513095	WHO ARRIVE
-1.361412	WHO IX
-1.445946	WHO JOHN
-1.007384	WHO MARY	-1.031489
-1.614925	WHO MOTHER
-1.551012	WHO POSS
-1.638505	WHO TELL	-0.554368
-1.614925	WHO VEGETABLE
-0.9961978	WHO WHAT	-0.554368
-0.4695801	WILL VISIT	-0.554368
-0.6292702	WOMAN ARRIVE
-1.166531	WOMAN BOOK	-0.554368
-1.224757	WOMAN HAVE
-1.069294	WOMAN IX
-1.10562	WOMAN WHAT
-0.176864	WONT EAT	-0.2694283
-0.4829218	WRITE HOMEWORK
-0.5357291	YESTERDAY </s>
-1.166531	YESTERDAY BOOK	-0.554368
-1.069294	YESTERDAY IX
-1.10562	YESTERDAY WHAT	-0.554368
-1.135008	YESTERDAY WHO	-0.7304593

\3-grams:
-0.08973494	<s> ALL BOY
-0.1023415	TEACHER APPLE </s>
-0.07130415	THROW APPLE WHO
-0.1209455	<s> ARRIVE WHO
-0.07609817	BROTHER ARRIVE </s>
-0.1374041	JOHN ARRIVE </s>
-0.284103	TELL BILL YESTERDAY
-0.1677683	CAR BLUE </s>
-0.03037117	BOY BOOK </s>
-0.03037117	HAVE BOOK </s>
-0.02000966	READ BOOK </s>
-0.02000966	WHAT BOOK </s>
-0.03037117	WOMAN BOOK </s>
-0.03037117	YESTERDAY BOOK </s>
-0.03723812	GIRL BOX </s>
-0.02446734	JOHN BOX </s>
-0.1128549	ALL BOY GIVE
-0.1128549	GIVE BOY BOOK
-0.03723812	CAR BREAK-DOWN </s>
-0.07797119	PREFER BROCCOLI </s>
-0.08912386	EAT BUT CAN
-0.3913389	JOHN BUY CAR
-0.5531977	JOHN BUY WHAT
-0.7772995	JOHN BUY YESTERDAY
-0.03033117	NOT BUY HOUSE
-0.4186669	SUE BUY IX
-0.1324534	BUT CAN EAT
-0.02961484	GO CAN </s>
-0.1589953	JOHN CAN GO
-0.2717449	BUY CAR FUTURE
-0.07629123	IX CAR BLUE
-0.07629123	NEW CAR BREAK-DOWN
-0.07797119	EAT CHICKEN </s>
-0.08487018	VEGETABLE CHINA IX
-0.2420312	LIKE CHOCOLATE </s>
-0.07797119	NEW COAT </s>
-0.02446734	LIKE CORN </s>
-0.03723812	PREFER CORN </s>
-0.08851364	JOHN DECIDE VISIT
-0.1238096	CAN EAT CHICKEN
-0.2823723	WONT EAT BUT
-0.08973494	JOHN FISH WONT
-0.1221592	<s> FRANK POSS
-0.1559717	CAR FUTURE </s>
-0.5965057	JOHN FUTURE FINISH
-0.5954595	JOHN FUTURE GO
-0.5554481	JOHN FUTURE NOT
-0.114794	GIVE GIRL BOX
-0.07189065	IX GIRL GIVE
-0.1366771	BOY GIVE TEACHER
-0.08490143	GIRL GIVE JOHN
-0.6084663	JOHN GIVE GIRL
-0.2215089	JOHN GIVE IX
-0.04026178	CAN GO CAN
-0.2942421	FUTURE GO IX
-0.5190289	JOHN GO NEW-YORK
-0.4605129	JOHN GO SHOULD
-0.1349667	PREFER GO MOVIE
-0.1236988	STUDENT HAVE VIDEOTAPE
-0.05039585	ARRIVE HERE </s>
-0.02074943	BUY HOUSE </s>
-0.5076468	<s> IX GIRL
-0.1336958	BUY IX CAR
-0.1396769	CHINA IX PEOPLE
-0.5341086	GIVE IX MAN
-0.5316132	GIVE IX SOMETHING-ONE
-0.09619653	GO IX </s>
-0.3275215	IX IX </s>
-0.3571652	IX IX IX
-0.674409	JOHN IX THINK
-0.08466116	KNOW IX LIKE
-0.0617087	LEAVE IX </s>
-0.06067049	LIKE IX IX
-0.09004081	GIVE JANA TOY
-1.390895	<s> JOHN ARRIVE
-1.026285	<s> JOHN BUY
-1.08353	<s> JOHN CAN
-1.766607	<s> JOHN DECIDE
-1.766607	<s> JOHN FISH
-0.98172	<s> JOHN FUTURE
-1.206492	<s> JOHN GIVE
-1.517003	<s> JOHN GO
-1.160473	<s> JOHN IX
-1.554889	<s> JOHN LEAVE
-1.26529	<s> JOHN LIKE
-1.692277	<s> JOHN MARY
-1.745041	<s> JOHN NOT
-1.397145	<s> JOHN POSS
-1.745041	<s> JOHN PREFER
-1.325236	<s> JOHN SEE
-1.214686	<s> JOHN SHOULD
-1.766607	<s> JOHN WANT
-1.766607	<s> JOHN WILL
-0.08836882	GIVE JOHN BOX
-0.1380149	LOVE JOHN WHO
-0.1990007	WHAT JOHN LOVE
-0.04036521	VEGETABLE KNOW IX
-0.05469937	JOHN LEAVE IX
-0.2045818	IX LIKE CORN
-0.2261773	JOHN LIKE IX
-0.4257331	<s> LOVE JOHN
-0.3593125	<s> LOVE MARY
-0.3689333	JOHN LOVE WHAT
-0.254638	MARY LOVE </s>
-0.6095762	<s> MARY SELF
-0.3840358	<s> MARY VEGETABLE
-0.3123767	LOVE MARY </s>
-0.4325342	LOVE MARY JOHN
-0.129116	THINK MARY LOVE
-0.06120372	VISIT MARY </s>
-0.1324702	WHAT MARY </s>
-0.02264274	WHO MARY </s>
-0.08870733	POSS NEW CAR
-0.07797119	GO NEW-YORK </s>
-0.170354	FUTURE NOT BUY
-0.1313303	JOHN NOT VISIT
-0.246129	SHOULD NOT BUY
-0.1228186	IX PEOPLE PREFER
-0.1268872	JOHN PREFER GO
-0.1282215	PEOPLE PREFER BROCCOLI
-0.1278875	SELF PREFER CORN
-0.04173186	FINISH READ BOOK
-0.3739021	JOHN SEE THROW
-0.5819916	JOHN SEE WHO
-0.08912386	MARY SELF PREFER
-0.1135003	WANT SELL CAR
-0.3026464	GO SHOULD SHOULD
-0.3721409	JOHN SHOULD NOT
-0.08632267	SHOULD SHOULD </s>
-0.5111219	<s> SOMETHING-ONE STUDENT
-0.1340769	IX SOMETHING-ONE WOMAN
-0.07797119	CAR STOLEN </s>
-0.02745933	<s> SUE BUY
-0.1128549	<s> TEACHER GIVE
-0.114794	GIVE TEACHER APPLE
-0.02790108	<s> TELL BILL
-0.04255393	WHO TELL BILL
-0.08668809	IX THINK MARY
-0.05771847	SEE THROW APPLE
-0.07797119	JANA TOY </s>
-0.1282215	<s> VEGETABLE CHINA
-0.2902397	MARY VEGETABLE KNOW
-0.03723812	HAVE VIDEOTAPE </s>
-0.06675836	DECIDE VISIT MARY
-0.06675836	FINISH VISIT MARY
-0.06675836	NOT VISIT MARY
-0.06675836	WILL VISIT MARY
-0.08973494	JOHN WANT SELL
-0.3001723	<s> WHAT JOHN
-0.3102965	BUY WHAT YESTERDAY
-0.05750029	LOVE WHAT </s>
-0.08938269	WHO WHAT </s>
-0.1286697	YESTERDAY WHAT BOOK
-0.4433691	<s> WHO JOHN
-0.670958	<s> WHO TELL
-0.0797328	APPLE WHO MARY
-0.2212539	ARRIVE WHO </s>
-0.09092138	JOHN WHO </s>
-0.0797328	YESTERDAY WHO MARY
-0.08851364	JOHN WILL VISIT
-0.1307698	SOMETHING-ONE WOMAN BOOK
-0.04255393	FISH WONT EAT
-0.08216942	BILL YESTERDAY WHO
-0.1290928	BUY YESTERDAY WHAT
-0.1307698	WHAT YESTERDAY BOOK

\end\
